Language model created by QuickLM on Sat Feb 27 18:00:55 EST 2016
Copyright (c) 1996-2010 Carnegie Mellon University and Alexander I. Rudnicky

The model is in standard ARPA format, designed by Doug Paul while he was at MITRE.

The code that was used to produce this language model is available in Open Source.
Please visit http://www.speech.cs.cmu.edu/tools/ for more information

The (fixed) discount mass is 0.5. The backoffs are computed using the ratio method.
This model based on a corpus of 25 sentences and 40 words

\data\
ngram 1=40
ngram 2=66
ngram 3=53

\1-grams:
-0.9201 </s> -0.3010
-0.9201 <s> -0.2406
-2.3181 ALL -0.2989
-2.3181 BIRTHDAYS -0.2454
-2.3181 CANCEL -0.2454
-2.0170 DO -0.2968
-1.7160 GET -0.2926
-2.3181 HAVE -0.2989
-2.0170 HOW -0.2926
-2.3181 I -0.2989
-1.8409 IS -0.2947
-2.0170 IT -0.2454
-2.3181 LAP -0.2454
-2.3181 LATE -0.2947
-2.3181 LIST -0.2989
-2.3181 LOUDER -0.2454
-2.3181 MAILS -0.2454
-2.3181 MESSAGES -0.2454
-2.3181 MUTE -0.2454
-2.3181 NEXT -0.2926
-2.3181 NOTIFICATIONS -0.2454
-2.3181 PAUSE -0.2454
-2.3181 PREVIOUS -0.2926
-2.3181 QUIETER -0.2454
-2.3181 QUIT -0.2454
-2.0170 START -0.2862
-2.0170 STOP -0.2862
-1.8409 STOPWATCH -0.2430
-2.3181 TASKS -0.2454
-2.3181 TERESA -0.2454
-2.3181 THANK -0.2989
-2.3181 THE -0.2989
-2.3181 TIME -0.2947
-2.3181 TO -0.2968
-2.3181 TODAY -0.2454
-1.7160 TRACK -0.2454
-2.3181 UPDATE -0.2454
-2.3181 WEATHER -0.2454
-2.0170 WHAT -0.2947
-2.3181 YOU -0.2454

\2-grams:
-1.6990 <s> CANCEL 0.0000
-1.0969 <s> GET 0.0000
-1.3979 <s> HOW 0.0000
-1.6990 <s> LIST 0.0000
-1.6990 <s> LOUDER 0.0000
-1.6990 <s> MUTE 0.0000
-1.6990 <s> NEXT 0.0000
-1.6990 <s> PAUSE 0.0000
-1.6990 <s> PREVIOUS 0.0000
-1.6990 <s> QUIETER 0.0000
-1.6990 <s> QUIT 0.0000
-1.3979 <s> START 0.0000
-1.3979 <s> STOP 0.0000
-1.6990 <s> STOPWATCH -0.2218
-1.6990 <s> TERESA 0.0000
-1.6990 <s> THANK 0.0000
-1.6990 <s> UPDATE 0.0000
-1.3979 <s> WHAT 0.0000
-0.3010 ALL BIRTHDAYS 0.0000
-0.3010 BIRTHDAYS </s> -0.3010
-0.3010 CANCEL </s> -0.3010
-0.6021 DO I 0.0000
-0.6021 DO TODAY 0.0000
-0.9031 GET MAILS 0.0000
-0.9031 GET MESSAGES 0.0000
-0.9031 GET NOTIFICATIONS 0.0000
-0.9031 GET TASKS 0.0000
-0.3010 HAVE TO 0.0000
-0.6021 HOW IS -0.2218
-0.6021 HOW LATE 0.0000
-0.3010 I HAVE 0.0000
-0.4771 IS IT 0.0000
-0.7782 IS THE 0.0000
-0.3010 IT </s> -0.3010
-0.3010 LAP </s> -0.3010
-0.3010 LATE IS -0.1249
-0.3010 LIST ALL 0.0000
-0.3010 LOUDER </s> -0.3010
-0.3010 MAILS </s> -0.3010
-0.3010 MESSAGES </s> -0.3010
-0.3010 MUTE </s> -0.3010
-0.3010 NEXT TRACK 0.0000
-0.3010 NOTIFICATIONS </s> -0.3010
-0.3010 PAUSE </s> -0.3010
-0.3010 PREVIOUS TRACK 0.0000
-0.3010 QUIETER </s> -0.3010
-0.3010 QUIT </s> -0.3010
-0.6021 START STOPWATCH -0.1249
-0.6021 START TRACK 0.0000
-0.6021 STOP STOPWATCH -0.1249
-0.6021 STOP TRACK 0.0000
-0.4771 STOPWATCH </s> -0.3010
-0.7782 STOPWATCH LAP 0.0000
-0.3010 TASKS </s> -0.3010
-0.3010 TERESA </s> -0.3010
-0.3010 THANK YOU 0.0000
-0.3010 THE WEATHER 0.0000
-0.3010 TIME IS -0.1249
-0.3010 TO DO -0.1761
-0.3010 TODAY </s> -0.3010
-0.3010 TRACK </s> -0.3010
-0.3010 UPDATE </s> -0.3010
-0.3010 WEATHER </s> -0.3010
-0.6021 WHAT DO -0.1761
-0.6021 WHAT TIME 0.0000
-0.3010 YOU </s> -0.3010

\3-grams:
-0.3010 <s> CANCEL </s>
-0.9031 <s> GET MAILS
-0.9031 <s> GET MESSAGES
-0.9031 <s> GET NOTIFICATIONS
-0.9031 <s> GET TASKS
-0.6021 <s> HOW IS
-0.6021 <s> HOW LATE
-0.3010 <s> LIST ALL
-0.3010 <s> LOUDER </s>
-0.3010 <s> MUTE </s>
-0.3010 <s> NEXT TRACK
-0.3010 <s> PAUSE </s>
-0.3010 <s> PREVIOUS TRACK
-0.3010 <s> QUIETER </s>
-0.3010 <s> QUIT </s>
-0.6021 <s> START STOPWATCH
-0.6021 <s> START TRACK
-0.6021 <s> STOP STOPWATCH
-0.6021 <s> STOP TRACK
-0.3010 <s> STOPWATCH LAP
-0.3010 <s> TERESA </s>
-0.3010 <s> THANK YOU
-0.3010 <s> UPDATE </s>
-0.6021 <s> WHAT DO
-0.6021 <s> WHAT TIME
-0.3010 ALL BIRTHDAYS </s>
-0.3010 DO I HAVE
-0.3010 DO TODAY </s>
-0.3010 GET MAILS </s>
-0.3010 GET MESSAGES </s>
-0.3010 GET NOTIFICATIONS </s>
-0.3010 GET TASKS </s>
-0.3010 HAVE TO DO
-0.3010 HOW IS THE
-0.3010 HOW LATE IS
-0.3010 I HAVE TO
-0.3010 IS IT </s>
-0.3010 IS THE WEATHER
-0.3010 LATE IS IT
-0.3010 LIST ALL BIRTHDAYS
-0.3010 NEXT TRACK </s>
-0.3010 PREVIOUS TRACK </s>
-0.3010 START STOPWATCH </s>
-0.3010 START TRACK </s>
-0.3010 STOP STOPWATCH </s>
-0.3010 STOP TRACK </s>
-0.3010 STOPWATCH LAP </s>
-0.3010 THANK YOU </s>
-0.3010 THE WEATHER </s>
-0.3010 TIME IS IT
-0.3010 TO DO TODAY
-0.3010 WHAT DO I
-0.3010 WHAT TIME IS

\end\
