Language model created by QuickLM on Thu Mar  3 16:02:49 EST 2016
Copyright (c) 1996-2010 Carnegie Mellon University and Alexander I. Rudnicky

The model is in standard ARPA format, designed by Doug Paul while he was at MITRE.

The code that was used to produce this language model is available in Open Source.
Please visit http://www.speech.cs.cmu.edu/tools/ for more information

The (fixed) discount mass is 0.5. The backoffs are computed using the ratio method.
This model based on a corpus of 12 sentences and 27 words

\data\
ngram 1=27
ngram 2=39
ngram 3=32

\1-grams:
-0.9853 </s> -0.3010
-0.9853 <s> -0.2536
-1.7634 ALL -0.2935
-2.0645 BIRTHDAYS -0.2536
-2.0645 CONTACTS -0.2536
-1.7634 DO -0.2494
-2.0645 HAVE -0.2973
-1.7634 HOW -0.2858
-2.0645 I -0.2973
-1.5873 IS -0.2897
-1.7634 IT -0.2536
-2.0645 LATE -0.2897
-1.5873 LIST -0.2897
-2.0645 QUIT -0.2536
-2.0645 START -0.2935
-2.0645 STOP -0.2935
-1.7634 STOPWATCH -0.2536
-2.0645 TASKS -0.2536
-2.0645 TERESA -0.2536
-2.0645 THANK -0.2973
-2.0645 THE -0.2973
-2.0645 TIME -0.2897
-2.0645 TO -0.2935
-2.0645 WEATHER -0.2536
-2.0645 WHAT -0.2935
-2.0645 WITCH -0.2973
-2.0645 YOU -0.2536

\2-grams:
-1.0792 <s> HOW 0.0000
-0.9031 <s> LIST 0.0000
-1.3802 <s> QUIT 0.0000
-1.3802 <s> START 0.0000
-1.3802 <s> STOP 0.0000
-1.3802 <s> TERESA 0.0000
-1.3802 <s> THANK 0.0000
-1.3802 <s> WHAT 0.0000
-1.3802 <s> WITCH 0.0000
-0.6021 ALL BIRTHDAYS 0.0000
-0.6021 ALL CONTACTS 0.0000
-0.3010 BIRTHDAYS </s> -0.3010
-0.3010 CONTACTS </s> -0.3010
-0.6021 DO </s> -0.3010
-0.6021 DO I 0.0000
-0.3010 HAVE TO 0.0000
-0.6021 HOW IS -0.2218
-0.6021 HOW LATE 0.0000
-0.3010 I HAVE 0.0000
-0.4771 IS IT 0.0000
-0.7782 IS THE 0.0000
-0.3010 IT </s> -0.3010
-0.3010 LATE IS -0.1249
-0.4771 LIST ALL 0.0000
-0.7782 LIST TASKS 0.0000
-0.3010 QUIT </s> -0.3010
-0.3010 START STOPWATCH 0.0000
-0.3010 STOP STOPWATCH 0.0000
-0.3010 STOPWATCH </s> -0.3010
-0.3010 TASKS </s> -0.3010
-0.3010 TERESA </s> -0.3010
-0.3010 THANK YOU 0.0000
-0.3010 THE WEATHER 0.0000
-0.3010 TIME IS -0.1249
-0.3010 TO DO -0.1761
-0.3010 WEATHER </s> -0.3010
-0.3010 WHAT DO -0.1761
-0.3010 WITCH TIME 0.0000
-0.3010 YOU </s> -0.3010

\3-grams:
-0.6021 <s> HOW IS
-0.6021 <s> HOW LATE
-0.4771 <s> LIST ALL
-0.7782 <s> LIST TASKS
-0.3010 <s> QUIT </s>
-0.3010 <s> START STOPWATCH
-0.3010 <s> STOP STOPWATCH
-0.3010 <s> TERESA </s>
-0.3010 <s> THANK YOU
-0.3010 <s> WHAT DO
-0.3010 <s> WITCH TIME
-0.3010 ALL BIRTHDAYS </s>
-0.3010 ALL CONTACTS </s>
-0.3010 DO I HAVE
-0.3010 HAVE TO DO
-0.3010 HOW IS THE
-0.3010 HOW LATE IS
-0.3010 I HAVE TO
-0.3010 IS IT </s>
-0.3010 IS THE WEATHER
-0.3010 LATE IS IT
-0.6021 LIST ALL BIRTHDAYS
-0.6021 LIST ALL CONTACTS
-0.3010 LIST TASKS </s>
-0.3010 START STOPWATCH </s>
-0.3010 STOP STOPWATCH </s>
-0.3010 THANK YOU </s>
-0.3010 THE WEATHER </s>
-0.3010 TIME IS IT
-0.3010 TO DO </s>
-0.3010 WHAT DO I
-0.3010 WITCH TIME IS

\end\
